SVM-light Version V6.20
0 # kernel type
3 # kernel parameter -d 
1 # kernel parameter -g 
1 # kernel parameter -s 
1 # kernel parameter -r 
empty# kernel parameter -u 
9 # highest feature index 
53 # number of training documents 
2 # number of support vectors plus 1 
0 # threshold b, each following line is a SV (starting with alpha*y)
1 1:-0.071631677 2:0.34000045 3:0.0036125123 4:-0.70449668 5:0.39230865 6:-0.035291947 7:0.069326133 8:0.67766243 #
